/*!
 * The following copyright notice may not be removed under any circumstances.
 * 
 * Copyright:
 * 2007 Vic Fieger
 * 
 * Trademark:
 * 2007 Vic Fieger
 * 
 * Description:
 * Whitehall 629 is created with the Font Creator Program from High-Logic.com
 */
Cufon.registerFont({"w":1139,"face":{"font-family":"Whitehall","font-weight":400,"font-stretch":"normal","units-per-em":"2048","panose-1":"2 0 0 0 0 0 0 0 0 0","ascent":"1638","descent":"-410","x-height":"23","cap-height":"18","bbox":"-104.817 -1661.15 1610 412.526","underline-thickness":"150","underline-position":"-142","unicode-range":"U+0020-U+2122"},"glyphs":{" ":{"w":569},"\u00a0":{"w":569},"!":{"d":"241,-1103v54,-69,111,-65,172,11v-10,93,-26,368,-49,823v-45,41,-86,34,-123,-20v-29,-451,-29,-723,0,-814xm390,-76v18,63,0,102,-58,118v-58,16,-99,-5,-122,-66v-23,-61,-2,-100,60,-119v62,-19,102,4,120,67","w":601},"\"":{"d":"586,-1156v1,150,-14,292,-47,427r-114,-46v-1,-120,-4,-232,-11,-337v27,-69,85,-83,172,-44xm370,-1156v1,150,-15,292,-47,427r-114,-46v-1,-120,-5,-232,-11,-337v27,-69,85,-83,172,-44","w":798},"#":{},"$":{"d":"575,-993v-67,6,-144,24,-229,55v-85,31,-133,64,-142,99v-9,35,10,67,59,93v49,26,152,23,310,-9xm697,-1130v121,2,260,25,419,69v13,55,0,91,-38,108v-154,-45,-280,-64,-379,-55r0,238v189,-5,326,18,410,70v84,52,135,118,153,196v18,78,14,149,-15,212v-29,63,-87,131,-176,203v-89,72,-211,117,-366,136r1,134v-55,54,-100,63,-135,26r1,-143v-89,11,-179,8,-272,-12v-93,-20,-182,-64,-267,-131v6,-62,31,-97,74,-106v73,49,155,84,243,103v88,19,161,25,218,19r2,-565v-133,25,-233,32,-300,22v-67,-10,-122,-36,-164,-78v-42,-42,-55,-93,-37,-154v39,-133,163,-193,297,-240v73,-26,143,-40,210,-46r-2,-84v31,-28,73,-30,126,-7xm701,-77v192,-30,383,-114,437,-273v26,-75,4,-146,-68,-211v-72,-65,-196,-93,-371,-84","w":1305},"%":{"w":1821},"&":{"w":1366},"'":{"d":"298,-1156v-17,150,-51,292,-100,427r-108,-46v14,-120,24,-232,31,-337v36,-69,95,-83,177,-44","w":391},"(":{"d":"428,-1362v-316,527,-322,1084,-18,1671v-15,31,-40,42,-77,34v-390,-609,-388,-1197,7,-1764v46,0,75,20,88,59","w":350},")":{"d":"-62,287v316,-527,322,-1084,17,-1672v15,-30,41,-41,78,-33v390,609,387,1196,-8,1763v-45,1,-74,-19,-87,-58","w":354},"*":{"w":797},"+":{"w":1196},",":{"d":"274,-296v-17,150,-51,292,-100,427r-108,-47v14,-119,24,-231,31,-336v36,-69,95,-83,177,-44","w":501},"-":{"d":"701,-697v39,44,35,90,-10,138r-615,27v-29,-49,-23,-95,17,-138","w":794},"\u00ad":{"d":"701,-697v39,44,35,90,-10,138r-615,27v-29,-49,-23,-95,17,-138","w":794},".":{"d":"258,-252v36,6,63,36,82,90v19,54,-5,92,-72,116v-67,24,-110,9,-129,-44v-19,-53,-12,-94,19,-125v31,-31,64,-43,100,-37","w":504},"\/":{"d":"703,-1269v53,0,87,22,104,67r-690,1280v-76,49,-120,36,-133,-38","w":771},"0":{"d":"866,-1120v294,11,445,116,535,320v85,190,17,389,-72,510v-91,124,-217,212,-373,271v-150,56,-399,33,-546,-9v-78,-22,-153,-72,-232,-146v-149,-140,-193,-399,-68,-601v62,-100,125,-171,192,-211v67,-40,140,-74,218,-102v78,-28,193,-39,346,-32xm842,-1000v-210,-9,-314,31,-466,139v-94,67,-154,139,-180,219v-26,80,-27,152,-4,216v46,130,137,225,256,283v60,29,154,43,280,40v126,-3,238,-43,336,-122v98,-79,164,-164,195,-257v31,-93,33,-177,4,-254v-29,-77,-87,-139,-177,-186v-90,-47,-172,-75,-244,-78","w":1491},"1":{"d":"410,45v-45,27,-92,25,-143,-8r0,-998r-99,12v-51,-40,-58,-81,-19,-122r228,-42v37,12,44,47,23,106","w":552},"2":{"d":"490,-1076v248,-65,415,-42,602,26v76,28,135,78,176,148v41,70,34,138,-20,204v-54,66,-146,124,-276,174v-130,50,-237,89,-320,116v-83,27,-158,59,-226,96v-68,37,-140,111,-217,222r1064,-26v60,42,62,87,6,136r-1080,14v-116,36,-175,20,-177,-47v95,-227,218,-371,370,-433v152,-62,278,-106,378,-131v100,-25,198,-70,291,-135v93,-65,106,-124,39,-179v-67,-55,-149,-87,-244,-97v-194,-20,-285,9,-410,71v-60,30,-130,89,-210,174v-61,-21,-96,-51,-107,-88v101,-129,221,-209,361,-245","w":1377},"3":{"d":"557,-1120v158,-32,346,-37,493,0v68,17,124,58,168,122v44,64,53,124,24,180v-29,56,-98,106,-208,150v93,39,166,81,221,126v55,45,88,106,101,186v13,80,-12,151,-75,214v-63,63,-161,112,-293,147v-132,35,-290,48,-474,39v-184,-9,-339,-57,-466,-142v-17,-61,0,-106,53,-135v163,96,332,131,542,149v84,7,176,-4,277,-33v101,-29,177,-69,228,-122v51,-53,58,-110,20,-172v-38,-62,-128,-126,-269,-192v-133,24,-309,49,-528,74v-50,-33,-56,-72,-18,-118v251,-22,440,-55,568,-97v128,-42,192,-87,193,-134v1,-47,-25,-85,-80,-112v-130,-63,-335,-35,-494,0v-95,21,-198,66,-307,134v-88,-32,-98,-77,-31,-134v150,-69,268,-113,355,-130","w":1378},"4":{"d":"1099,-1098r-6,794r76,-6v39,51,35,102,-10,154r-73,7r-2,239v-41,51,-85,54,-134,11r-1,-256r-866,41v-48,-39,-59,-90,-32,-151r806,-748v49,7,80,38,91,93r3,-189v56,-47,105,-43,148,11xm212,-238r737,-39r2,-622","w":1212},"5":{"d":"1149,-1135v57,47,53,93,-11,137r-817,25r-55,313v139,-81,310,-116,510,-106v200,10,330,40,390,88v60,48,100,116,119,204v19,88,11,163,-25,226v-36,63,-97,119,-180,169v-83,50,-220,85,-412,105v-192,20,-397,-20,-615,-121v-15,-61,4,-106,55,-134v185,85,334,129,446,131v223,5,423,-57,542,-160v61,-52,76,-116,50,-192v-52,-150,-240,-204,-442,-194v-102,6,-200,20,-294,43v-94,23,-153,66,-175,128r-141,-33r109,-605","w":1320},"6":{"d":"570,-1056v242,-80,466,-75,691,3v31,67,14,105,-49,115v-163,-46,-304,-59,-422,-40v-225,34,-422,138,-533,278v-53,68,-84,130,-91,188v-7,58,5,115,37,172v203,-68,365,-110,483,-130v216,-37,460,9,592,70v129,60,175,133,50,255v-129,126,-455,195,-726,172v-146,-12,-266,-54,-360,-127v-94,-73,-156,-156,-188,-250v-32,-94,-30,-186,8,-277v85,-201,277,-353,508,-429xm776,-370v-181,24,-357,50,-498,133v139,107,274,161,407,162v133,1,245,-10,335,-33v90,-23,157,-53,200,-91v43,-38,43,-71,1,-101v-81,-57,-299,-90,-445,-70","w":1443},"7":{"d":"1112,-1133v72,12,91,60,56,143r-901,1219v-69,22,-107,1,-116,-62r862,-1150r-954,58v-48,-58,-49,-105,-2,-141","w":1210},"8":{"d":"579,-1088v209,-61,536,-52,648,70v33,34,49,76,47,124v-2,48,-55,105,-160,169v147,19,260,75,338,169v78,94,85,192,21,298v-64,106,-155,182,-274,230v-208,85,-394,115,-657,109v-108,-2,-215,-29,-320,-78v-105,-49,-171,-115,-196,-201v-25,-86,2,-173,80,-261v78,-88,185,-159,319,-214v-90,-35,-138,-83,-143,-143v-5,-60,22,-114,81,-163v59,-49,131,-85,216,-109xm1050,-978v-186,-78,-516,-40,-606,100v-31,48,-18,85,44,112v145,62,332,28,490,-14v93,-26,143,-58,151,-98v8,-40,-18,-74,-79,-100xm646,-616v-128,27,-243,76,-345,148v-102,72,-148,147,-137,224v11,77,63,130,156,162v182,63,564,42,727,-27v92,-39,169,-81,229,-131v60,-50,87,-108,82,-176v-5,-68,-45,-121,-121,-160v-169,-86,-355,-90,-591,-40","w":1537},"9":{"d":"1126,-904r-185,941v-60,50,-114,43,-163,-21r143,-609v-191,51,-359,68,-503,52v-144,-16,-252,-61,-324,-135v-72,-74,-92,-154,-56,-242v36,-88,116,-144,242,-166v284,-50,536,-25,799,46v58,16,63,53,47,134xm494,-1002v-167,9,-270,44,-307,105v-37,61,-26,115,35,163v61,48,153,74,275,77v122,3,272,-24,449,-83r38,-188v-159,-58,-323,-83,-490,-74","w":1164},":":{"d":"130,-733v-23,-84,29,-152,105,-151v74,1,116,41,116,120v0,46,-32,76,-95,90v-72,15,-111,-5,-126,-59xm214,-127v-79,0,-110,-129,-54,-181v32,-29,64,-41,100,-36v40,6,88,60,88,123v0,37,-26,64,-78,83v-21,7,-39,11,-56,11","w":504},";":{"d":"270,-880v45,10,72,43,81,99v9,56,-23,92,-95,107v-72,15,-112,-4,-126,-58v-27,-102,47,-169,140,-148xm319,-296v-17,150,-51,292,-100,427r-108,-47v14,-119,24,-231,31,-336v36,-69,95,-83,177,-44","w":504},"\u037e":{"d":"270,-880v45,10,72,43,81,99v9,56,-23,92,-95,107v-72,15,-112,-4,-126,-58v-27,-102,47,-169,140,-148xm319,-296v-17,150,-51,292,-100,427r-108,-47v14,-119,24,-231,31,-336v36,-69,95,-83,177,-44","w":504},"<":{"w":1196},"=":{"d":"701,-744v39,44,35,90,-10,138r-615,27v-29,-49,-23,-95,17,-138xm701,-536v39,44,35,90,-10,138r-615,27v-29,-49,-23,-95,17,-138","w":794},">":{"w":1196},"?":{"d":"566,-1112v148,3,269,36,362,99v93,63,142,125,147,185v5,60,-18,115,-69,164v-51,49,-126,83,-225,104v-99,21,-181,49,-247,83v-66,34,-59,79,20,134v-21,55,-60,83,-117,84v-73,-67,-102,-135,-87,-203v15,-68,56,-113,122,-137v66,-24,136,-43,211,-57v75,-14,138,-39,187,-76v49,-37,53,-84,10,-140v-43,-56,-106,-92,-190,-108v-84,-16,-171,-23,-263,-22v-92,1,-191,42,-297,121v-49,-17,-77,-46,-84,-87v44,-69,126,-99,220,-126v52,-14,152,-21,300,-18xm578,-93v8,82,-49,136,-150,111v-56,-14,-77,-45,-63,-98v14,-53,51,-78,113,-74v62,4,96,24,100,61","w":1117},"@":{"w":2079},"A":{"d":"543,-1092v41,-30,92,-20,153,30r666,1007v-15,49,-63,68,-144,57r-157,-227r-902,67r-106,189v-77,14,-121,-10,-134,-73xm603,-944r-383,652r792,-49","w":1283},"B":{"d":"569,-1104v158,-3,282,9,371,37v89,28,151,69,188,123v37,54,10,127,-81,220v131,26,222,70,277,130v104,113,101,306,-4,410v-52,52,-176,106,-376,162v-200,56,-511,64,-933,24r0,-896v-51,-47,-49,-88,4,-123v211,-55,396,-84,554,-87xm151,-934r3,206v165,-29,425,-33,780,-10v105,-120,47,-195,-72,-238v-59,-22,-160,-30,-299,-28v-139,2,-277,26,-412,70xm147,-608r0,478v323,40,538,48,647,26v109,-22,198,-42,265,-61v121,-34,209,-109,198,-257v-6,-67,-38,-118,-95,-152v-57,-34,-174,-57,-353,-68v-179,-11,-399,1,-662,34","w":1411},"C":{"d":"984,-1092v101,12,245,52,434,122v32,53,10,94,-67,122v-152,-74,-223,-99,-391,-130v-175,-33,-315,15,-452,71v-163,66,-263,152,-322,319v-59,165,-3,253,80,339v94,97,209,120,378,153v90,18,187,15,289,-4v102,-19,235,-77,400,-176v67,9,101,34,101,74v-9,22,-56,59,-140,111v-165,103,-455,155,-734,105v-142,-25,-252,-58,-328,-101v-76,-43,-137,-117,-182,-220v-45,-103,-37,-222,26,-355v63,-133,153,-232,270,-295v117,-63,226,-105,330,-124v104,-19,207,-23,308,-11","w":1473},"D":{"d":"160,-1072v240,-27,439,-40,596,-38v157,2,292,28,405,77v113,49,188,113,225,191v82,172,26,356,-56,494v-103,173,-320,298,-570,345v-139,26,-368,45,-686,35v-36,-1,-55,-28,-56,-65r-14,-1017v3,-25,22,-41,56,-50v34,-9,67,0,100,28xm163,-922r-3,798v260,19,450,16,570,-8v120,-24,218,-62,295,-115v135,-93,204,-171,241,-335v15,-66,8,-128,-16,-186v-24,-58,-82,-109,-172,-153v-90,-44,-192,-68,-304,-71v-112,-3,-316,21,-611,70","w":1432},"E":{"d":"1099,-1130v53,37,56,74,8,111r-911,29r-1,185r907,-37v54,37,55,76,4,119r-911,36r-1,575r965,-25v53,31,56,72,9,125r-980,39v-83,3,-137,-18,-137,-65r4,-940v-66,-50,-61,-95,15,-135","w":1239},"F":{"d":"987,-1105v49,45,46,84,-9,116r-834,22r5,185r822,-22v47,41,48,81,4,119r-829,24r0,679v-48,50,-94,47,-137,-8r0,-988v-57,-40,-48,-78,25,-115","w":1071},"G":{"d":"984,-1092v101,12,245,52,434,122v32,53,10,94,-67,122v-152,-74,-223,-99,-391,-130v-175,-33,-315,15,-452,71v-163,66,-263,152,-322,319v-59,165,-3,253,80,339v94,97,209,120,378,153v90,18,187,15,289,-4v102,-19,224,-73,366,-163r0,-183r-419,33v-61,-33,-63,-75,-4,-125r457,-37v63,-7,99,13,108,58r0,644v-45,46,-91,41,-139,-16r0,-211v-170,112,-454,164,-742,114v-143,-24,-252,-58,-328,-101v-76,-43,-137,-117,-182,-220v-45,-103,-37,-222,26,-355v63,-133,153,-232,270,-295v117,-63,226,-105,330,-124v104,-19,207,-23,308,-11","w":1473},"H":{"d":"173,-1077r0,278r981,-49r-5,-264v50,-42,97,-37,141,14r12,1102v-43,23,-88,22,-134,-3r-11,-728r-984,41r-2,690v-57,45,-107,46,-148,4r-8,-1090v39,-57,91,-55,158,5","w":1311},"I":{"d":"322,-1090r0,1108v-48,50,-94,47,-137,-8r-3,-1084v36,-49,83,-55,140,-16","w":498},"J":{"d":"904,-1091v15,537,12,837,-9,897v-44,128,-117,159,-246,206v-66,24,-148,29,-245,20v-178,-17,-309,-96,-366,-222v-5,-47,30,-69,105,-64v80,109,152,157,305,170v130,11,270,-51,314,-140v24,-49,27,-338,4,-867v41,-45,87,-45,138,0","w":952},"K":{"d":"976,-1150v58,-5,82,25,72,88r-762,347r887,685v-9,66,-39,92,-91,78r-901,-678r3,619v-54,39,-100,39,-138,0r-3,-1083v45,-35,93,-29,143,20r-2,286","w":1126},"L":{"d":"22,-1097v45,-27,92,-25,143,8r0,1022r813,-39v52,40,58,81,19,122r-942,45v-67,-35,-75,-71,-23,-106","w":1034},"M":{"d":"1453,-1173v57,-23,106,-10,145,39r12,1130v-42,37,-88,44,-138,21r-5,-952r-590,975v-54,29,-100,24,-139,-17r-568,-922r7,914v-53,30,-101,32,-144,5r-8,-1136v44,-46,101,-42,170,13r617,989","w":1632},"N":{"d":"224,-1087r933,960r-12,-970v47,-45,92,-45,137,0r3,1090v-47,43,-106,47,-177,12r-921,-921r14,918v-46,28,-91,30,-136,6r-6,-1111v33,-37,88,-32,165,16","w":1309},"O":{"d":"1097,-1084v105,42,202,111,289,205v87,94,120,210,100,349v-20,139,-81,252,-184,342v-103,90,-226,154,-370,192v-144,38,-291,38,-442,2v-151,-36,-266,-94,-342,-174v-76,-80,-117,-184,-124,-310v-7,-126,43,-252,152,-380v109,-128,264,-208,464,-240v200,-32,352,-28,457,14xm291,-794v-91,102,-136,197,-136,286v0,89,30,170,89,245v59,75,154,129,283,161v129,32,255,30,375,-5v120,-35,226,-89,316,-162v90,-73,139,-159,147,-260v8,-101,-22,-193,-89,-275v-67,-82,-144,-140,-232,-174v-88,-34,-212,-38,-374,-10v-162,28,-288,92,-379,194","w":1569},"P":{"d":"28,-1108v222,-18,619,-47,845,-16v113,15,193,62,243,144v50,82,30,156,-60,221v-90,65,-187,112,-292,141v-105,29,-299,37,-583,26r0,599v-63,53,-110,54,-141,5r-8,-999v-62,-30,-63,-70,-4,-121xm177,-987r1,278v261,7,437,0,526,-19v89,-19,167,-50,234,-94v67,-44,81,-86,40,-128v-41,-42,-124,-66,-248,-73v-124,-7,-308,5,-553,36","w":1170},"Q":{"d":"1097,-1084v105,42,202,111,289,205v87,94,120,210,100,349v-20,139,-98,265,-235,380r242,177v-1,52,-33,81,-97,88r-256,-187v-283,88,-499,114,-650,78v-151,-36,-266,-94,-342,-174v-76,-80,-117,-184,-124,-310v-7,-126,43,-252,152,-380v109,-128,264,-208,464,-240v200,-32,352,-28,457,14xm291,-794v-91,102,-136,197,-136,286v0,89,30,170,89,245v59,75,154,129,283,161v129,32,306,12,531,-61r-325,-261v-11,-59,23,-83,103,-74r322,256v130,-91,199,-186,207,-287v8,-101,-22,-193,-89,-275v-67,-82,-144,-140,-232,-174v-88,-34,-212,-38,-374,-10v-162,28,-288,92,-379,194","w":1569},"R":{"d":"37,-1108v222,-18,619,-47,845,-16v113,15,194,75,246,182v52,107,33,200,-60,277v-182,151,-356,208,-688,186r778,484v27,70,-5,100,-94,91r-877,-550r3,461v-63,53,-110,54,-141,5r-8,-988v-54,-26,-55,-70,-4,-132xm186,-987r1,416v261,-10,437,-24,526,-43v89,-19,168,-58,237,-114v69,-56,83,-117,40,-184v-43,-67,-127,-104,-251,-111v-124,-7,-308,5,-553,36","w":1191},"S":{"d":"645,-1129v259,-18,312,-6,601,63v15,55,1,91,-42,108v-173,-45,-330,-62,-469,-50v-139,12,-257,34,-353,65v-96,31,-150,64,-160,99v-10,35,12,66,67,92v55,26,145,29,272,6v254,-46,484,-23,675,58v96,41,154,100,174,178v20,78,15,150,-17,213v-32,63,-97,131,-197,203v-100,72,-243,119,-430,139v-369,39,-527,12,-736,-129v7,-62,35,-97,84,-106v169,99,351,140,631,108v140,-16,255,-46,346,-92v91,-46,151,-107,181,-182v30,-75,4,-137,-74,-192v-150,-105,-382,-121,-616,-79v-207,38,-358,33,-470,-62v-48,-41,-62,-93,-42,-154v20,-61,60,-110,120,-147v109,-70,294,-128,455,-139","w":1450},"T":{"d":"1317,-1158v54,37,56,77,6,118r-569,34r4,1027v-54,41,-101,38,-141,-11r-8,-1003r-570,33v-42,-35,-40,-77,6,-125","w":1365},"U":{"d":"186,-1081v-19,529,-14,822,14,881v28,59,72,102,132,130v60,28,158,34,292,19v134,-15,248,-39,338,-72v157,-57,228,-117,260,-271v13,-61,14,-307,8,-735v43,-32,87,-28,130,13v16,389,19,628,5,718v-30,198,-157,346,-349,400v-178,50,-338,76,-535,78v-76,0,-154,-13,-235,-38v-81,-25,-140,-75,-178,-151v-38,-76,-48,-402,-30,-978v41,-49,91,-47,148,6","w":1421},"V":{"d":"77,-1109r588,963r677,-952v73,-24,116,-6,127,54r-719,1051v-75,35,-137,28,-184,-21r-631,-1019v0,-69,47,-95,142,-76","w":1386},"W":{"d":"754,-829r-348,812v-85,54,-150,58,-195,13r-233,-1122v43,-40,92,-45,146,-15r202,961r352,-821v37,-41,95,-43,173,-8r340,838r228,-972v49,-23,96,-16,139,21r-261,1107v-38,49,-96,58,-173,27","w":1536},"X":{"d":"1241,-1156v69,0,100,26,93,78r-589,513r555,514v-16,51,-50,80,-102,87r-547,-499r-601,489v-53,11,-87,-22,-100,-98r602,-487r-497,-510v31,-47,71,-75,118,-84r485,501","w":1307},"Y":{"d":"10,-1139r527,437r703,-466v81,3,111,34,92,93r-712,492r8,586v-52,50,-104,51,-156,2r1,-578r-577,-484v-7,-58,31,-85,114,-82","w":1213},"Z":{"d":"70,67v-41,-16,-44,-59,-11,-129r992,-915r-961,18v-42,-47,-39,-90,9,-127r1180,-25v49,22,60,76,-2,130r-1030,912r1035,-62v83,31,89,83,18,156","w":1366},"[":{"w":569},"\\":{"w":569},"]":{"w":569},"^":{"w":961},"_":{},"`":{"d":"284,-1175v7,-45,38,-91,74,-91v16,0,34,7,55,19v78,43,139,135,182,276r-46,58v-65,-118,-154,-205,-265,-262","w":798},"a":{"d":"562,-732v157,0,255,25,294,74v39,49,70,116,70,202r0,458v-47,30,-87,34,-122,11r0,-168v-137,114,-289,175,-456,181v-167,6,-271,-35,-313,-122v-42,-87,-2,-165,119,-234v121,-69,336,-105,646,-107v17,-85,-13,-142,-88,-166v-187,-59,-347,-30,-496,70v-46,-27,-52,-62,-18,-104v86,-63,207,-95,364,-95xm799,-342v-295,10,-480,34,-555,74v-75,40,-100,85,-78,134v22,49,94,69,215,62v121,-7,260,-67,415,-179","w":977},"b":{"d":"183,-1004r2,468v151,-47,292,-81,425,-100v133,-19,253,-5,360,41v107,46,132,135,75,267v-57,132,-183,230,-376,294v-193,64,-356,55,-489,-26r1,69v-64,37,-114,25,-114,-39r-7,-990v29,-5,70,0,123,16xm607,-540v-121,24,-264,63,-427,118r2,245v121,91,262,110,422,58v160,-52,268,-121,324,-209v56,-88,46,-152,-28,-190v-74,-38,-172,-46,-293,-22","w":1125},"c":{"d":"1048,-679v16,42,5,74,-32,95v-381,-46,-634,-3,-794,194v-76,94,-78,173,-7,237v71,64,167,92,286,83v119,-9,298,-57,536,-145v49,19,64,52,43,98v-293,95,-495,142,-606,141v-111,-1,-209,-23,-296,-66v-87,-43,-136,-105,-146,-186v-10,-81,25,-164,106,-248v81,-84,200,-149,356,-194v156,-45,341,-48,554,-9","w":1128},"d":{"d":"1076,-990r-3,990v-57,41,-98,38,-123,-8r-3,-122r-250,92v-75,27,-172,44,-293,52v-121,8,-215,-10,-283,-56v-68,-46,-97,-105,-85,-178v12,-73,60,-146,144,-218v84,-72,185,-124,300,-154v115,-30,273,-25,474,14r3,-409v37,-33,76,-34,119,-3xm512,-485v-74,24,-150,60,-226,107v-76,47,-116,104,-124,171v-8,67,38,107,140,120v102,13,209,1,322,-34v113,-35,221,-83,325,-143r2,-207v-219,-33,-365,-38,-439,-14","w":1114},"e":{"d":"294,-612v170,-87,362,-142,610,-90v115,24,179,76,190,154v11,78,-69,155,-242,232v-173,77,-405,103,-697,78v13,58,60,101,141,128v81,27,186,35,317,24v131,-11,273,-58,426,-142v55,21,79,56,74,105v-117,53,-205,90,-325,121v-151,39,-244,29,-456,6v-130,-14,-223,-67,-278,-156v-55,-89,-50,-177,12,-262v62,-85,137,-152,228,-198xm432,-558v-136,42,-227,116,-275,223v273,20,480,0,619,-59v139,-59,200,-110,181,-153v-19,-43,-77,-65,-175,-69v-98,-4,-214,16,-350,58","w":1143},"f":{"d":"172,-944v94,-102,286,-142,475,-78v28,47,17,78,-33,94v-153,-25,-257,-21,-312,12v-55,33,-74,135,-57,304r423,-22v33,43,35,79,5,108r-422,19r8,549v-41,31,-82,34,-122,7r-8,-539r-133,4v-21,-36,-21,-71,1,-106r124,-17v-11,-174,6,-286,51,-335","w":656},"g":{"d":"1084,-684v106,572,95,897,-32,974v-127,77,-257,115,-390,112v-133,-3,-308,-36,-524,-99v-47,-51,-36,-88,33,-109v229,63,395,94,497,94v102,0,197,-27,286,-81v89,-54,112,-203,68,-448v-119,143,-272,226,-460,249v-188,23,-331,10,-429,-38v-98,-48,-140,-117,-127,-208v13,-91,72,-171,174,-241v102,-70,209,-121,321,-149v236,-60,288,-77,583,-56xm979,-569v-201,-18,-377,3,-529,64v-152,61,-252,135,-301,223v-49,88,-26,147,69,176v95,29,210,32,346,8v136,-24,285,-117,447,-279","w":1178},"h":{"d":"38,-1001v27,-41,64,-39,110,6r3,488v142,-97,273,-150,393,-165v228,-29,362,79,377,272v6,92,-18,229,-72,412v-52,35,-91,30,-116,-13v48,-157,69,-280,67,-371v-3,-175,-134,-235,-316,-196v-88,20,-196,86,-324,198r2,365v-45,45,-85,49,-119,10","w":954},"i":{"d":"224,-703v-35,236,-34,475,2,716v-42,28,-80,30,-113,5v-31,-238,-35,-481,-11,-730v46,-29,87,-26,122,9","w":291},"j":{"d":"576,-712v41,-32,77,-31,110,3v21,463,20,748,0,855v-20,107,-81,181,-182,220v-101,39,-205,43,-314,12v-109,-31,-152,-131,-129,-300v34,-29,77,-35,128,-18v-28,123,-10,196,53,220v63,24,134,20,210,-12v76,-32,118,-96,127,-193v9,-97,8,-359,-3,-787","w":765},"k":{"d":"181,-1010r-1,611r606,-263v53,11,73,40,60,89r-533,224r661,293v9,58,-14,84,-70,77r-722,-331r3,326v-40,37,-78,44,-114,21r-5,-1046v37,-25,76,-25,115,-1","w":1013},"l":{"d":"224,-981v-35,325,-34,653,2,986v-42,39,-80,41,-113,6v-31,-327,-35,-662,-11,-1005v46,-40,87,-36,122,13","w":291},"m":{"d":"414,-712v213,-27,318,-5,395,140v74,-101,173,-155,299,-156v270,-2,365,52,361,302r-7,428v-51,50,-91,52,-120,5v23,-305,17,-488,-18,-547v-35,-59,-99,-90,-192,-92v-93,-2,-194,57,-304,178r-4,476v-58,37,-99,36,-123,-5r0,-498v-5,-72,-34,-114,-86,-125v-52,-11,-119,-7,-203,14v-84,21,-159,69,-226,143r3,482v-46,41,-86,41,-119,0r-4,-722v34,-34,74,-35,119,-2r-3,101v60,-68,137,-110,232,-122","w":1528},"n":{"d":"414,-712v95,-13,184,-12,268,4v84,16,147,66,188,150v41,84,46,279,16,584v-58,37,-99,36,-123,-5v22,-241,27,-401,13,-483v-14,-82,-57,-129,-130,-142v-73,-13,-150,-9,-234,12v-84,21,-159,69,-226,143r3,482v-46,41,-86,41,-119,0r-4,-722v34,-34,74,-35,119,-2r-3,101v60,-68,137,-109,232,-122","w":948},"o":{"d":"760,-720v214,21,346,73,416,248v36,90,17,177,-60,262v-146,163,-351,240,-644,246v-138,2,-258,-44,-359,-138v-101,-94,-115,-202,-39,-322v76,-120,184,-202,324,-245v140,-43,260,-61,362,-51xm394,-557v-96,39,-164,98,-204,177v-40,79,-25,152,47,216v72,64,165,96,278,94v113,-2,221,-22,323,-60v102,-38,171,-99,205,-186v34,-87,12,-157,-63,-214v-147,-112,-403,-102,-586,-27","w":1220},"p":{"d":"45,395r3,-1071v58,-41,99,-38,123,9r4,60v172,-65,296,-95,518,-93v98,2,185,24,259,67v74,43,113,118,118,223v5,105,-29,190,-101,254v-72,64,-173,101,-304,111v-131,10,-297,-22,-498,-97r5,506v-41,52,-84,62,-127,31xm605,-148v107,-4,191,-27,252,-72v61,-45,90,-108,88,-188v-2,-80,-49,-133,-141,-160v-92,-27,-194,-33,-307,-18v-113,15,-221,52,-324,113r-3,224v183,71,328,105,435,101","w":1113},"q":{"d":"951,401r2,-541v-199,73,-363,109,-489,108v-126,-1,-227,-30,-304,-87v-77,-57,-111,-138,-108,-243v5,-202,181,-335,378,-338v221,-2,345,28,518,93r1,-66v26,-43,68,-38,125,16r4,1025v-45,41,-88,52,-127,33xm950,-257r0,-216v-116,-55,-226,-90,-332,-103v-106,-13,-205,0,-298,38v-93,38,-140,98,-142,178v-2,80,32,138,100,172v68,34,147,48,238,44v91,-4,235,-42,434,-113","w":1113},"r":{"d":"414,-712v95,-13,212,8,351,65v25,51,10,84,-43,97v-247,-99,-398,-46,-536,101r3,482v-46,41,-86,41,-119,0r-4,-722v34,-34,74,-35,119,-2r-3,101v60,-68,137,-109,232,-122","w":812},"s":{"d":"789,-717v26,18,20,52,-17,102v-276,-7,-380,-1,-549,53v-56,18,-75,47,-55,82v20,35,90,42,210,20v120,-22,221,-33,306,-32v85,1,157,14,216,36v59,22,94,67,106,136v12,69,-11,136,-66,202v-55,66,-164,112,-326,138v-162,26,-355,4,-578,-65v-39,-48,-32,-81,21,-100v239,56,422,75,547,55v125,-20,208,-55,250,-104v42,-49,43,-95,2,-138v-41,-43,-108,-63,-200,-62v-92,1,-198,9,-317,26v-119,17,-209,4,-269,-37v-60,-41,-74,-88,-42,-140v32,-52,111,-98,236,-138v125,-40,300,-51,525,-34","w":1033},"t":{"d":"214,-904v43,-33,84,-38,123,-15r2,224r226,-10v39,29,35,66,-10,113r-206,5r10,556v-29,72,-74,84,-134,35r-11,-578r-214,7v-30,-49,-20,-88,30,-115r185,-5","w":559},"u":{"d":"565,23v-125,12,-229,9,-313,-7v-84,-16,-146,-66,-187,-150v-41,-84,-46,-278,-17,-583v59,-37,100,-36,124,5v-23,241,-28,402,-14,484v14,82,57,129,130,142v73,13,157,12,252,0v95,-12,151,-43,176,-87v45,-80,27,-430,29,-551v47,-41,86,-41,119,0v15,366,0,579,-45,639v-45,60,-129,96,-254,108","w":902},"v":{"d":"935,-714v44,-16,81,-6,111,29r-494,686v-49,49,-101,58,-132,9r-418,-675v13,-55,51,-72,116,-51r365,616","w":1049},"w":{"d":"564,-713v27,-21,62,-24,107,-9r265,605r259,-605v54,-17,100,-16,139,4r-332,736v-41,35,-86,37,-135,8r-260,-605r-288,609v-41,16,-80,18,-118,5r-246,-738v35,-33,77,-36,125,-10r188,603","w":1281},"x":{"d":"973,-670r-380,319r355,315v-19,57,-60,77,-122,60r-322,-297r-406,319v-75,3,-115,-20,-120,-69r436,-323r-346,-293v4,-56,43,-77,117,-63r326,275r356,-312v67,0,102,23,106,69","w":997},"y":{"d":"925,-714v107,592,98,927,-29,1004v-127,77,-258,115,-391,112v-133,-3,-308,-36,-524,-99v-47,-51,-36,-88,33,-109v229,63,395,94,497,94v102,0,198,-27,287,-81v89,-54,111,-203,67,-448v-119,143,-249,225,-389,245v-266,38,-415,-18,-444,-233v-14,-101,16,-264,86,-489v61,-22,105,-20,134,6v-111,342,-123,535,-36,578v87,43,174,53,262,32v88,-21,214,-113,376,-275r-40,-314v34,-37,71,-45,111,-23","w":1026},"z":{"d":"917,-733v37,7,45,44,24,109r-704,550r706,-17v52,23,50,59,-5,107r-863,21v-46,9,-56,-27,-30,-108r721,-540r-674,14v-25,-43,-24,-82,3,-117","w":1004},"{":{"w":684},"|":{"w":532},"}":{"w":684},"~":{"w":1196},"\u00c4":{"d":"543,-1092v41,-30,92,-20,153,30r666,1007v-15,49,-63,68,-144,57r-157,-227r-902,67r-106,189v-77,14,-121,-10,-134,-73xm603,-944r-383,652r792,-49xm324,-1455v-1,-53,44,-88,94,-88v63,0,94,33,99,98v4,47,-55,76,-117,78v-53,2,-75,-37,-76,-88xm790,-1378v-57,26,-120,-16,-129,-58v-15,-32,23,-90,61,-108v50,-24,102,28,122,66v25,46,-23,86,-54,100","w":1283},"\u00c5":{"w":1366},"\u00c7":{"d":"984,-1092v101,12,245,52,434,122v32,53,10,94,-67,122v-152,-74,-223,-99,-391,-130v-175,-33,-315,15,-452,71v-163,66,-263,152,-322,319v-59,165,-3,253,80,339v94,97,209,120,378,153v90,18,187,15,289,-4v102,-19,235,-77,400,-176v67,9,101,34,101,74v-9,22,-56,59,-140,111v-165,103,-455,155,-734,105v-142,-25,-252,-58,-328,-101v-76,-43,-137,-117,-182,-220v-45,-103,-37,-222,26,-355v63,-133,153,-232,270,-295v117,-63,226,-105,330,-124v104,-19,207,-23,308,-11xm940,275v-3,58,-89,110,-168,110v-40,0,-106,0,-128,-7v-32,-10,-60,-23,-73,-49v3,-21,22,-34,41,-42v5,3,9,10,16,8v23,20,46,39,81,39v56,0,116,-5,137,-43v29,-52,-29,-74,-65,-83v-48,-13,-101,-22,-110,-76v-4,-26,5,-53,30,-79v8,1,8,-5,12,-8v9,1,17,4,24,9v15,3,25,14,31,32v-33,24,-22,47,4,57v68,27,173,39,168,132","w":1473},"\u00c9":{"d":"1099,-1130v53,37,56,74,8,111r-911,29r-1,185r907,-37v54,37,55,76,4,119r-911,36r-1,575r965,-25v53,31,56,72,9,125r-980,39v-83,3,-137,-18,-137,-65r4,-940v-66,-50,-61,-95,15,-135xm716,-1633v56,-35,98,-23,121,44v5,9,8,18,8,28v-67,99,-155,186,-265,262r-46,-58v88,-99,149,-191,182,-276","w":1239},"\u00d1":{"d":"224,-1087r933,960r-12,-970v47,-45,92,-45,137,0r3,1090v-47,43,-106,47,-177,12r-921,-921r14,918v-46,28,-91,30,-136,6r-6,-1111v33,-37,88,-32,165,16xm479,-1521v28,-4,44,8,78,26r201,108r99,-122v17,-7,45,-1,84,19r-127,183v1,3,-2,4,-9,4v-15,0,-42,-6,-82,-19r-188,-108r-97,116r-82,-32","w":1309},"\u00d6":{"d":"1097,-1084v105,42,202,111,289,205v87,94,120,210,100,349v-20,139,-81,252,-184,342v-103,90,-226,154,-370,192v-144,38,-291,38,-442,2v-151,-36,-266,-94,-342,-174v-76,-80,-117,-184,-124,-310v-7,-126,43,-252,152,-380v109,-128,264,-208,464,-240v200,-32,352,-28,457,14xm291,-794v-91,102,-136,197,-136,286v0,89,30,170,89,245v59,75,154,129,283,161v129,32,255,30,375,-5v120,-35,226,-89,316,-162v90,-73,139,-159,147,-260v8,-101,-22,-193,-89,-275v-67,-82,-144,-140,-232,-174v-88,-34,-212,-38,-374,-10v-162,28,-288,92,-379,194xm488,-1451v-1,-53,44,-88,94,-88v63,0,94,33,99,98v4,47,-55,76,-117,78v-53,2,-75,-37,-76,-88xm954,-1374v-57,26,-120,-16,-129,-58v-15,-32,23,-90,61,-108v50,-24,102,28,122,66v25,46,-23,86,-54,100","w":1569},"\u00dc":{"d":"186,-1081v-19,529,-14,822,14,881v28,59,72,102,132,130v60,28,158,34,292,19v134,-15,248,-39,338,-72v157,-57,228,-117,260,-271v13,-61,14,-307,8,-735v43,-32,87,-28,130,13v16,389,19,628,5,718v-30,198,-157,346,-349,400v-178,50,-338,76,-535,78v-76,0,-154,-13,-235,-38v-81,-25,-140,-75,-178,-151v-38,-76,-48,-402,-30,-978v41,-49,91,-47,148,6xm440,-1447v-1,-53,44,-88,94,-88v63,0,94,33,99,98v4,47,-55,76,-117,78v-53,2,-75,-37,-76,-88xm906,-1370v-57,26,-120,-16,-129,-58v-15,-32,23,-90,61,-108v50,-24,102,28,122,66v25,46,-23,86,-54,100","w":1421},"\u00e1":{"d":"562,-732v157,0,255,25,294,74v39,49,70,116,70,202r0,458v-47,30,-87,34,-122,11r0,-168v-137,114,-289,175,-456,181v-167,6,-271,-35,-313,-122v-42,-87,-2,-165,119,-234v121,-69,336,-105,646,-107v17,-85,-13,-142,-88,-166v-187,-59,-347,-30,-496,70v-46,-27,-52,-62,-18,-104v86,-63,207,-95,364,-95xm799,-342v-295,10,-480,34,-555,74v-75,40,-100,85,-78,134v22,49,94,69,215,62v121,-7,260,-67,415,-179xm652,-1247v56,-35,98,-23,121,44v5,9,8,18,8,28v-67,99,-155,186,-265,262r-46,-58v88,-99,149,-191,182,-276","w":977},"\u00e0":{"d":"565,-732v157,0,255,25,294,74v39,49,70,116,70,202r0,458v-47,30,-87,34,-122,11r0,-168v-137,114,-289,175,-456,181v-167,6,-271,-35,-313,-122v-42,-87,-2,-165,119,-234v121,-69,336,-105,646,-107v17,-85,-13,-142,-88,-166v-187,-59,-347,-30,-496,70v-46,-27,-52,-62,-18,-104v86,-63,207,-95,364,-95xm802,-342v-295,10,-480,34,-555,74v-75,40,-100,85,-78,134v22,49,94,69,215,62v121,-7,260,-67,415,-179xm292,-1175v7,-45,38,-91,74,-91v16,0,34,7,55,19v78,43,139,135,182,276r-46,58v-65,-118,-154,-205,-265,-262","w":977},"\u00e2":{"d":"562,-732v157,0,255,25,294,74v39,49,70,116,70,202r0,458v-47,30,-87,34,-122,11r0,-168v-137,114,-289,175,-456,181v-167,6,-271,-35,-313,-122v-42,-87,-2,-165,119,-234v121,-69,336,-105,646,-107v17,-85,-13,-142,-88,-166v-187,-59,-347,-30,-496,70v-46,-27,-52,-62,-18,-104v86,-63,207,-95,364,-95xm799,-342v-295,10,-480,34,-555,74v-75,40,-100,85,-78,134v22,49,94,69,215,62v121,-7,260,-67,415,-179xm390,-921v-35,9,-63,3,-86,-17r198,-207v35,-28,68,-34,102,-6r158,205v-9,36,-49,42,-89,31r-118,-170","w":977},"\u00e4":{"d":"562,-732v157,0,255,25,294,74v39,49,70,116,70,202r0,458v-47,30,-87,34,-122,11r0,-168v-137,114,-289,175,-456,181v-167,6,-271,-35,-313,-122v-42,-87,-2,-165,119,-234v121,-69,336,-105,646,-107v17,-85,-13,-142,-88,-166v-187,-59,-347,-30,-496,70v-46,-27,-52,-62,-18,-104v86,-63,207,-95,364,-95xm799,-342v-295,10,-480,34,-555,74v-75,40,-100,85,-78,134v22,49,94,69,215,62v121,-7,260,-67,415,-179xm261,-1039v-1,-53,44,-88,94,-88v63,0,94,33,99,98v4,47,-55,76,-117,78v-53,2,-75,-37,-76,-88xm727,-962v-57,26,-120,-16,-129,-58v-15,-32,23,-90,61,-108v50,-24,102,28,122,66v25,46,-23,86,-54,100","w":977},"\u00e3":{"d":"562,-732v157,0,255,25,294,74v39,49,70,116,70,202r0,458v-47,30,-87,34,-122,11r0,-168v-137,114,-289,175,-456,181v-167,6,-271,-35,-313,-122v-42,-87,-2,-165,119,-234v121,-69,336,-105,646,-107v17,-85,-13,-142,-88,-166v-187,-59,-347,-30,-496,70v-46,-27,-52,-62,-18,-104v86,-63,207,-95,364,-95xm799,-342v-295,10,-480,34,-555,74v-75,40,-100,85,-78,134v22,49,94,69,215,62v121,-7,260,-67,415,-179xm330,-1109v28,-4,44,8,78,26r201,108r99,-122v17,-7,45,-1,84,19r-127,183v1,3,-2,4,-9,4v-15,0,-42,-6,-82,-19r-188,-108r-97,116r-82,-32","w":977},"\u00e5":{},"\u00e7":{"d":"1048,-679v16,42,5,74,-32,95v-381,-46,-634,-3,-794,194v-76,94,-78,173,-7,237v71,64,167,92,286,83v119,-9,298,-57,536,-145v49,19,64,52,43,98v-293,95,-495,142,-606,141v-111,-1,-209,-23,-296,-66v-87,-43,-136,-105,-146,-186v-10,-81,25,-164,106,-248v81,-84,200,-149,356,-194v156,-45,341,-48,554,-9xm760,266v-3,58,-89,110,-168,110v-40,0,-106,0,-128,-7v-32,-10,-60,-23,-73,-49v3,-21,22,-34,41,-42v5,3,9,10,16,8v23,20,46,39,81,39v56,0,116,-5,137,-43v29,-52,-29,-74,-65,-83v-48,-13,-101,-22,-110,-76v-4,-26,5,-53,30,-79v8,1,8,-5,12,-8v9,1,17,4,24,9v15,3,25,14,31,32v-33,24,-22,47,4,57v68,27,173,39,168,132","w":1128},"\u00e9":{"d":"294,-612v170,-87,362,-142,610,-90v115,24,179,76,190,154v11,78,-69,155,-242,232v-173,77,-405,103,-697,78v13,58,60,101,141,128v81,27,186,35,317,24v131,-11,273,-58,426,-142v55,21,79,56,74,105v-117,53,-205,90,-325,121v-151,39,-244,29,-456,6v-130,-14,-223,-67,-278,-156v-55,-89,-50,-177,12,-262v62,-85,137,-152,228,-198xm432,-558v-136,42,-227,116,-275,223v273,20,480,0,619,-59v139,-59,200,-110,181,-153v-19,-43,-77,-65,-175,-69v-98,-4,-214,16,-350,58xm725,-1247v56,-35,98,-23,121,44v5,9,8,18,8,28v-67,99,-155,186,-265,262r-46,-58v88,-99,149,-191,182,-276","w":1143},"\u00e8":{"d":"294,-612v170,-87,362,-142,610,-90v115,24,179,76,190,154v11,78,-69,155,-242,232v-173,77,-405,103,-697,78v13,58,60,101,141,128v81,27,186,35,317,24v131,-11,273,-58,426,-142v55,21,79,56,74,105v-117,53,-205,90,-325,121v-151,39,-244,29,-456,6v-130,-14,-223,-67,-278,-156v-55,-89,-50,-177,12,-262v62,-85,137,-152,228,-198xm432,-558v-136,42,-227,116,-275,223v273,20,480,0,619,-59v139,-59,200,-110,181,-153v-19,-43,-77,-65,-175,-69v-98,-4,-214,16,-350,58xm345,-1175v7,-45,38,-91,74,-91v16,0,34,7,55,19v78,43,139,135,182,276r-46,58v-65,-118,-154,-205,-265,-262","w":1143},"\u00ea":{"d":"294,-612v170,-87,362,-142,610,-90v115,24,179,76,190,154v11,78,-69,155,-242,232v-173,77,-405,103,-697,78v13,58,60,101,141,128v81,27,186,35,317,24v131,-11,273,-58,426,-142v55,21,79,56,74,105v-117,53,-205,90,-325,121v-151,39,-244,29,-456,6v-130,-14,-223,-67,-278,-156v-55,-89,-50,-177,12,-262v62,-85,137,-152,228,-198xm432,-558v-136,42,-227,116,-275,223v273,20,480,0,619,-59v139,-59,200,-110,181,-153v-19,-43,-77,-65,-175,-69v-98,-4,-214,16,-350,58xm432,-916v-35,9,-63,3,-86,-17r198,-207v35,-28,68,-34,102,-6r158,205v-9,36,-49,42,-89,31r-118,-170","w":1143},"\u00eb":{"d":"294,-612v170,-87,362,-142,610,-90v115,24,179,76,190,154v11,78,-69,155,-242,232v-173,77,-405,103,-697,78v13,58,60,101,141,128v81,27,186,35,317,24v131,-11,273,-58,426,-142v55,21,79,56,74,105v-117,53,-205,90,-325,121v-151,39,-244,29,-456,6v-130,-14,-223,-67,-278,-156v-55,-89,-50,-177,12,-262v62,-85,137,-152,228,-198xm432,-558v-136,42,-227,116,-275,223v273,20,480,0,619,-59v139,-59,200,-110,181,-153v-19,-43,-77,-65,-175,-69v-98,-4,-214,16,-350,58xm327,-1039v-1,-53,44,-88,94,-88v63,0,94,33,99,98v4,47,-55,76,-117,78v-53,2,-75,-37,-76,-88xm793,-962v-57,26,-120,-16,-129,-58v-15,-32,23,-90,61,-108v50,-24,102,28,122,66v25,46,-23,86,-54,100","w":1143},"\u00ed":{"d":"224,-703v-35,236,-34,475,2,716v-42,28,-80,30,-113,5v-31,-238,-35,-481,-11,-730v46,-29,87,-26,122,9xm290,-1247v56,-35,98,-23,121,44v5,9,8,18,8,28v-67,99,-155,186,-265,262r-46,-58v88,-99,149,-191,182,-276","w":291},"\u00ec":{"d":"225,-703v-35,236,-34,475,2,716v-42,28,-80,30,-113,5v-31,-238,-35,-481,-11,-730v46,-29,87,-26,122,9xm-87,-1175v7,-45,38,-91,74,-91v16,0,34,7,55,19v78,43,139,135,182,276r-46,58v-65,-118,-154,-205,-265,-262","w":291},"\u00ee":{"d":"232,-703v-35,236,-34,475,2,716v-42,28,-80,30,-113,5v-31,-238,-35,-481,-11,-730v46,-29,87,-26,122,9xm56,-916v-28,9,-50,3,-68,-17r158,-207v28,-28,54,-34,82,-6r126,205v-7,36,-39,42,-71,31r-95,-170","w":291},"\u00ef":{"d":"224,-703v-35,236,-34,475,2,716v-42,28,-80,30,-113,5v-31,-238,-35,-481,-11,-730v46,-29,87,-26,122,9xm-80,-1039v-1,-53,44,-88,94,-88v63,0,94,33,99,98v4,47,-55,76,-117,78v-53,2,-75,-37,-76,-88xm386,-962v-57,26,-120,-16,-129,-58v-15,-32,23,-90,61,-108v50,-24,102,28,122,66v25,46,-23,86,-54,100","w":291},"\u00f1":{"d":"414,-712v95,-13,184,-12,268,4v84,16,147,66,188,150v41,84,46,279,16,584v-58,37,-99,36,-123,-5v22,-241,27,-401,13,-483v-14,-82,-57,-129,-130,-142v-73,-13,-150,-9,-234,12v-84,21,-159,69,-226,143r3,482v-46,41,-86,41,-119,0r-4,-722v34,-34,74,-35,119,-2r-3,101v60,-68,137,-109,232,-122xm330,-1109v28,-4,44,8,78,26r201,108r99,-122v17,-7,45,-1,84,19r-127,183v1,3,-2,4,-9,4v-15,0,-42,-6,-82,-19r-188,-108r-97,116r-82,-32","w":948},"\u00f3":{"d":"760,-720v214,21,346,73,416,248v36,90,17,177,-60,262v-146,163,-351,240,-644,246v-138,2,-258,-44,-359,-138v-101,-94,-115,-202,-39,-322v76,-120,184,-202,324,-245v140,-43,260,-61,362,-51xm394,-557v-96,39,-164,98,-204,177v-40,79,-25,152,47,216v72,64,165,96,278,94v113,-2,221,-22,323,-60v102,-38,171,-99,205,-186v34,-87,12,-157,-63,-214v-147,-112,-403,-102,-586,-27xm776,-1247v56,-35,98,-23,121,44v5,9,8,18,8,28v-67,99,-155,186,-265,262r-46,-58v88,-99,149,-191,182,-276","w":1220},"\u00f2":{"d":"760,-720v214,21,346,73,416,248v36,90,17,177,-60,262v-146,163,-351,240,-644,246v-138,2,-258,-44,-359,-138v-101,-94,-115,-202,-39,-322v76,-120,184,-202,324,-245v140,-43,260,-61,362,-51xm394,-557v-96,39,-164,98,-204,177v-40,79,-25,152,47,216v72,64,165,96,278,94v113,-2,221,-22,323,-60v102,-38,171,-99,205,-186v34,-87,12,-157,-63,-214v-147,-112,-403,-102,-586,-27xm366,-1175v7,-45,38,-91,74,-91v16,0,34,7,55,19v78,43,139,135,182,276r-46,58v-65,-118,-154,-205,-265,-262","w":1220},"\u00f4":{"d":"760,-720v214,21,346,73,416,248v36,90,17,177,-60,262v-146,163,-351,240,-644,246v-138,2,-258,-44,-359,-138v-101,-94,-115,-202,-39,-322v76,-120,184,-202,324,-245v140,-43,260,-61,362,-51xm394,-557v-96,39,-164,98,-204,177v-40,79,-25,152,47,216v72,64,165,96,278,94v113,-2,221,-22,323,-60v102,-38,171,-99,205,-186v34,-87,12,-157,-63,-214v-147,-112,-403,-102,-586,-27xm503,-916v-35,9,-63,3,-86,-17r198,-207v35,-28,68,-34,102,-6r158,205v-9,36,-49,42,-89,31r-118,-170","w":1220},"\u00f6":{"d":"760,-720v214,21,346,73,416,248v36,90,17,177,-60,262v-146,163,-351,240,-644,246v-138,2,-258,-44,-359,-138v-101,-94,-115,-202,-39,-322v76,-120,184,-202,324,-245v140,-43,260,-61,362,-51xm394,-557v-96,39,-164,98,-204,177v-40,79,-25,152,47,216v72,64,165,96,278,94v113,-2,221,-22,323,-60v102,-38,171,-99,205,-186v34,-87,12,-157,-63,-214v-147,-112,-403,-102,-586,-27xm366,-1039v-1,-53,44,-88,94,-88v63,0,94,33,99,98v4,47,-55,76,-117,78v-53,2,-75,-37,-76,-88xm832,-962v-57,26,-120,-16,-129,-58v-15,-32,23,-90,61,-108v50,-24,102,28,122,66v25,46,-23,86,-54,100","w":1220},"\u00f5":{"d":"760,-720v214,21,346,73,416,248v36,90,17,177,-60,262v-146,163,-351,240,-644,246v-138,2,-258,-44,-359,-138v-101,-94,-115,-202,-39,-322v76,-120,184,-202,324,-245v140,-43,260,-61,362,-51xm394,-557v-96,39,-164,98,-204,177v-40,79,-25,152,47,216v72,64,165,96,278,94v113,-2,221,-22,323,-60v102,-38,171,-99,205,-186v34,-87,12,-157,-63,-214v-147,-112,-403,-102,-586,-27xm460,-1109v28,-4,44,8,78,26r201,108r99,-122v17,-7,45,-1,84,19r-127,183v1,3,-2,4,-9,4v-15,0,-42,-6,-82,-19r-188,-108r-97,116r-82,-32","w":1220},"\u00fa":{"d":"565,23v-125,12,-229,9,-313,-7v-84,-16,-146,-66,-187,-150v-41,-84,-46,-278,-17,-583v59,-37,100,-36,124,5v-23,241,-28,402,-14,484v14,82,57,129,130,142v73,13,157,12,252,0v95,-12,151,-43,176,-87v45,-80,27,-430,29,-551v47,-41,86,-41,119,0v15,366,0,579,-45,639v-45,60,-129,96,-254,108xm586,-1247v56,-35,98,-23,121,44v5,9,8,18,8,28v-67,99,-155,186,-265,262r-46,-58v88,-99,149,-191,182,-276","w":902},"\u00f9":{"d":"565,23v-125,12,-229,9,-313,-7v-84,-16,-146,-66,-187,-150v-41,-84,-46,-278,-17,-583v59,-37,100,-36,124,5v-23,241,-28,402,-14,484v14,82,57,129,130,142v73,13,157,12,252,0v95,-12,151,-43,176,-87v45,-80,27,-430,29,-551v47,-41,86,-41,119,0v15,366,0,579,-45,639v-45,60,-129,96,-254,108xm205,-1175v7,-45,38,-91,74,-91v16,0,34,7,55,19v78,43,139,135,182,276r-46,58v-65,-118,-154,-205,-265,-262","w":902},"\u00fb":{"d":"565,23v-125,12,-229,9,-313,-7v-84,-16,-146,-66,-187,-150v-41,-84,-46,-278,-17,-583v59,-37,100,-36,124,5v-23,241,-28,402,-14,484v14,82,57,129,130,142v73,13,157,12,252,0v95,-12,151,-43,176,-87v45,-80,27,-430,29,-551v47,-41,86,-41,119,0v15,366,0,579,-45,639v-45,60,-129,96,-254,108xm331,-916v-35,9,-63,3,-86,-17r198,-207v35,-28,68,-34,102,-6r158,205v-9,36,-49,42,-89,31r-118,-170","w":902},"\u00fc":{"d":"565,23v-125,12,-229,9,-313,-7v-84,-16,-146,-66,-187,-150v-41,-84,-46,-278,-17,-583v59,-37,100,-36,124,5v-23,241,-28,402,-14,484v14,82,57,129,130,142v73,13,157,12,252,0v95,-12,151,-43,176,-87v45,-80,27,-430,29,-551v47,-41,86,-41,119,0v15,366,0,579,-45,639v-45,60,-129,96,-254,108xm191,-1039v-1,-53,44,-88,94,-88v63,0,94,33,99,98v4,47,-55,76,-117,78v-53,2,-75,-37,-76,-88xm657,-962v-57,26,-120,-16,-129,-58v-15,-32,23,-90,61,-108v50,-24,102,28,122,66v25,46,-23,86,-54,100","w":902},"\u00b0":{"w":819},"\u00a2":{},"\u00a3":{},"\u00a7":{},"\u2022":{"w":717},"\u00b6":{"w":1100},"\u00df":{"d":"726,-639v131,-8,250,8,359,47v127,46,157,135,89,267v-68,132,-216,230,-445,294v-146,40,-277,51,-394,33v-37,-61,-13,-91,72,-91v76,0,158,-3,245,-27v162,-43,285,-109,368,-198v83,-89,76,-150,-18,-188v-102,-41,-289,-38,-433,-7r-103,29v-61,4,-91,-13,-92,-50v-1,-37,16,-56,52,-57v144,-45,230,-99,257,-161v27,-62,6,-107,-63,-137v-69,-30,-152,-41,-250,-33v-98,8,-161,59,-188,152r1,136r-4,107r6,506v-32,49,-74,58,-125,27r3,-775v41,-164,134,-251,279,-261v145,-10,261,7,349,50v88,43,134,91,143,142v12,68,-43,159,-108,195","w":1243},"\u00ae":{"w":1509},"\u00a9":{"w":1509},"\u2122":{"w":2048},"\u00b4":{"d":"466,-1247v56,-35,98,-23,121,44v5,9,8,18,8,28v-67,99,-155,186,-265,262r-46,-58v88,-99,149,-191,182,-276","w":798},"\u00a8":{"d":"119,-1039v-1,-53,44,-88,94,-88v63,0,94,33,99,98v4,47,-55,76,-117,78v-53,2,-75,-37,-76,-88xm585,-962v-57,26,-120,-16,-129,-58v-15,-32,23,-90,61,-108v50,-24,102,28,122,66v25,46,-23,86,-54,100","w":767},"\u00c6":{"w":2048},"\u00d8":{"w":1593},"\u00b1":{"w":1124},"\u00a5":{},"\u00b5":{"w":1180},"\u00aa":{"w":758},"\u00ba":{"w":748},"\u00e6":{"w":1821},"\u00f8":{"w":1251},"\u00bf":{"d":"562,23v-148,-3,-269,-36,-362,-99v-93,-63,-142,-125,-147,-185v-5,-60,18,-114,69,-163v51,-49,126,-85,225,-106v99,-21,181,-48,247,-82v66,-34,59,-79,-20,-134v21,-55,60,-83,117,-84v73,67,102,134,87,202v-15,68,-56,114,-122,138v-66,24,-136,43,-211,57v-75,14,-138,40,-187,77v-49,37,-53,84,-10,140v43,56,106,92,190,108v84,16,171,22,263,21v92,-1,191,-42,297,-121v49,17,77,46,84,87v-44,69,-126,100,-220,127v-52,14,-152,20,-300,17xm550,-996v-8,-82,49,-135,150,-110v56,14,77,45,63,98v-14,53,-51,77,-113,73v-62,-4,-96,-24,-100,-61","w":1117},"\u00a1":{"d":"353,-1v-54,68,-111,64,-172,-11v10,-93,26,-368,49,-823v45,-41,86,-34,123,20v29,451,29,723,0,814xm204,-1028v-18,-63,0,-102,58,-118v58,-16,99,5,122,66v23,61,2,100,-60,119v-62,19,-102,-4,-120,-67","w":601},"\u00ac":{"w":1196},"\u00ab":{},"\u00bb":{},"\u2026":{"w":2048},"\u00c0":{"d":"543,-1092v41,-30,92,-20,153,30r666,1007v-15,49,-63,68,-144,57r-157,-227r-902,67r-106,189v-77,14,-121,-10,-134,-73xm603,-944r-383,652r792,-49xm348,-1558v7,-45,38,-91,74,-91v16,0,34,7,55,19v78,43,139,135,182,276r-46,58v-65,-118,-154,-205,-265,-262","w":1283},"\u00c3":{"d":"543,-1092v41,-30,92,-20,153,30r666,1007v-15,49,-63,68,-144,57r-157,-227r-902,67r-106,189v-77,14,-121,-10,-134,-73xm603,-944r-383,652r792,-49xm441,-1517v28,-4,44,8,78,26r201,108r99,-122v17,-7,45,-1,84,19r-127,183v1,3,-2,4,-9,4v-15,0,-42,-6,-82,-19r-188,-108r-97,116r-82,-32","w":1283},"\u00d5":{"d":"1097,-1084v105,42,202,111,289,205v87,94,120,210,100,349v-20,139,-81,252,-184,342v-103,90,-226,154,-370,192v-144,38,-291,38,-442,2v-151,-36,-266,-94,-342,-174v-76,-80,-117,-184,-124,-310v-7,-126,43,-252,152,-380v109,-128,264,-208,464,-240v200,-32,352,-28,457,14xm291,-794v-91,102,-136,197,-136,286v0,89,30,170,89,245v59,75,154,129,283,161v129,32,255,30,375,-5v120,-35,226,-89,316,-162v90,-73,139,-159,147,-260v8,-101,-22,-193,-89,-275v-67,-82,-144,-140,-232,-174v-88,-34,-212,-38,-374,-10v-162,28,-288,92,-379,194xm602,-1521v28,-4,44,8,78,26r201,108r99,-122v17,-7,45,-1,84,19r-127,183v1,3,-2,4,-9,4v-15,0,-42,-6,-82,-19r-188,-108r-97,116r-82,-32","w":1569},"\u0152":{"w":2048},"\u0153":{"w":1933},"\u2013":{},"\u2014":{"w":2048},"\u201c":{"d":"586,-1156v1,150,-14,292,-47,427r-114,-46v-1,-120,-4,-232,-11,-337v27,-69,85,-83,172,-44xm370,-1156v1,150,-15,292,-47,427r-114,-46v-1,-120,-5,-232,-11,-337v27,-69,85,-83,172,-44","w":798},"\u201d":{"d":"586,-1156v1,150,-14,292,-47,427r-114,-46v-1,-120,-4,-232,-11,-337v27,-69,85,-83,172,-44xm370,-1156v1,150,-15,292,-47,427r-114,-46v-1,-120,-5,-232,-11,-337v27,-69,85,-83,172,-44","w":798},"\u2018":{"d":"298,-1156v-17,150,-51,292,-100,427r-108,-46v14,-120,24,-232,31,-337v36,-69,95,-83,177,-44","w":391},"\u2019":{"d":"298,-1156v-17,150,-51,292,-100,427r-108,-46v14,-120,24,-232,31,-337v36,-69,95,-83,177,-44","w":391},"\u00f7":{"w":1124},"\u00ff":{"d":"925,-714v107,592,98,927,-29,1004v-127,77,-258,115,-391,112v-133,-3,-308,-36,-524,-99v-47,-51,-36,-88,33,-109v229,63,395,94,497,94v102,0,198,-27,287,-81v89,-54,111,-203,67,-448v-119,143,-249,225,-389,245v-266,38,-415,-18,-444,-233v-14,-101,16,-264,86,-489v61,-22,105,-20,134,6v-111,342,-123,535,-36,578v87,43,174,53,262,32v88,-21,214,-113,376,-275r-40,-314v34,-37,71,-45,111,-23xm254,-1047v-1,-53,44,-88,94,-88v63,0,94,33,99,98v4,47,-55,76,-117,78v-53,2,-75,-37,-76,-88xm720,-970v-57,26,-120,-16,-129,-58v-15,-32,23,-90,61,-108v50,-24,102,28,122,66v25,46,-23,86,-54,100","w":1026},"\u0178":{"d":"10,-1139r527,437r703,-466v81,3,111,34,92,93r-712,492r8,586v-52,50,-104,51,-156,2r1,-578r-577,-484v-7,-58,31,-85,114,-82xm309,-1443v-1,-53,44,-88,94,-88v63,0,94,33,99,98v4,47,-55,76,-117,78v-53,2,-75,-37,-76,-88xm775,-1366v-57,26,-120,-16,-129,-58v-15,-32,23,-90,61,-108v50,-24,102,28,122,66v25,46,-23,86,-54,100","w":1213},"\u20ac":{"d":"199,-649v62,-139,154,-244,275,-308v176,-93,301,-137,523,-142v38,0,76,2,115,6v101,12,245,53,434,123v33,61,5,93,-67,122v-152,-74,-223,-99,-391,-130v-175,-33,-315,15,-452,71v-140,57,-230,126,-294,251r815,-37v39,37,35,76,-10,116r-847,39v-9,39,-12,75,-8,106r865,-40v39,37,35,76,-10,117r-810,36v47,74,122,137,211,167v127,42,325,91,513,52v102,-21,235,-77,400,-176v67,9,101,34,101,74v-9,22,-57,58,-140,111v-164,104,-468,152,-734,105v-142,-25,-252,-58,-328,-101v-77,-44,-140,-120,-184,-225r-106,5v-28,-43,-20,-81,17,-116r64,-3v-2,-34,1,-69,9,-106r-91,4v-28,-43,-20,-81,17,-116","w":1601},"\u2039":{"w":682},"\u203a":{"w":682},"\u00b7":{"w":569},"\u2219":{"w":569},"\u201a":{"w":455},"\u201e":{"w":682},"\u00c2":{"d":"543,-1092v41,-30,92,-20,153,30r666,1007v-15,49,-63,68,-144,57r-157,-227r-902,67r-106,189v-77,14,-121,-10,-134,-73xm603,-944r-383,652r792,-49xm431,-1312v-35,9,-63,3,-86,-17r198,-207v35,-28,68,-34,102,-6r158,205v-9,36,-49,42,-89,31r-118,-170","w":1283},"\u00ca":{"d":"1099,-1130v53,37,56,74,8,111r-911,29r-1,185r907,-37v54,37,55,76,4,119r-911,36r-1,575r965,-25v53,31,56,72,9,125r-980,39v-83,3,-137,-18,-137,-65r4,-940v-66,-50,-61,-95,15,-135xm466,-1316v-35,9,-63,3,-86,-17r198,-207v35,-28,68,-34,102,-6r158,205v-9,36,-49,42,-89,31r-118,-170","w":1239},"\u00c1":{"d":"543,-1092v41,-30,92,-20,153,30r666,1007v-15,49,-63,68,-144,57r-157,-227r-902,67r-106,189v-77,14,-121,-10,-134,-73xm603,-944r-383,652r792,-49xm737,-1634v56,-35,98,-23,121,44v5,9,8,18,8,28v-67,99,-155,186,-265,262r-46,-58v88,-99,149,-191,182,-276","w":1283},"\u00cb":{"d":"1099,-1130v53,37,56,74,8,111r-911,29r-1,185r907,-37v54,37,55,76,4,119r-911,36r-1,575r965,-25v53,31,56,72,9,125r-980,39v-83,3,-137,-18,-137,-65r4,-940v-66,-50,-61,-95,15,-135xm346,-1464v-1,-53,44,-88,94,-88v63,0,94,33,99,98v4,47,-55,76,-117,78v-53,2,-75,-37,-76,-88xm812,-1387v-57,26,-120,-16,-129,-58v-15,-32,23,-90,61,-108v50,-24,102,28,122,66v25,46,-23,86,-54,100","w":1239},"\u00c8":{"d":"1099,-1130v53,37,56,74,8,111r-911,29r-1,185r907,-37v54,37,55,76,4,119r-911,36r-1,575r965,-25v53,31,56,72,9,125r-980,39v-83,3,-137,-18,-137,-65r4,-940v-66,-50,-61,-95,15,-135xm365,-1566v7,-45,38,-91,74,-91v16,0,34,7,55,19v78,43,139,135,182,276r-46,58v-65,-118,-154,-205,-265,-262","w":1239},"\u00cd":{"d":"322,-1090r0,1108v-48,50,-94,47,-137,-8r-3,-1084v36,-49,83,-55,140,-16xm392,-1626v56,-35,98,-23,121,44v5,9,8,18,8,28v-67,99,-155,186,-265,262r-46,-58v88,-99,149,-191,182,-276","w":498},"\u00ce":{"d":"322,-1090r0,1108v-48,50,-94,47,-137,-8r-3,-1084v36,-49,83,-55,140,-16xm119,-1312v-35,9,-63,3,-86,-17r198,-207v35,-28,68,-34,102,-6r158,205v-9,36,-49,42,-89,31r-118,-170","w":498},"\u00cf":{"d":"322,-1090r0,1108v-48,50,-94,47,-137,-8r-3,-1084v36,-49,83,-55,140,-16xm-14,-1447v-1,-53,44,-88,94,-88v63,0,94,33,99,98v4,47,-55,76,-117,78v-53,2,-75,-37,-76,-88xm452,-1370v-57,26,-120,-16,-129,-58v-15,-32,23,-90,61,-108v50,-24,102,28,122,66v25,46,-23,86,-54,100","w":498},"\u00cc":{"d":"322,-1090r0,1108v-48,50,-94,47,-137,-8r-3,-1084v36,-49,83,-55,140,-16xm-9,-1570v7,-45,38,-91,74,-91v16,0,34,7,55,19v78,43,139,135,182,276r-46,58v-65,-118,-154,-205,-265,-262","w":498},"\u00d3":{"d":"1097,-1084v105,42,202,111,289,205v87,94,120,210,100,349v-20,139,-81,252,-184,342v-103,90,-226,154,-370,192v-144,38,-291,38,-442,2v-151,-36,-266,-94,-342,-174v-76,-80,-117,-184,-124,-310v-7,-126,43,-252,152,-380v109,-128,264,-208,464,-240v200,-32,352,-28,457,14xm291,-794v-91,102,-136,197,-136,286v0,89,30,170,89,245v59,75,154,129,283,161v129,32,255,30,375,-5v120,-35,226,-89,316,-162v90,-73,139,-159,147,-260v8,-101,-22,-193,-89,-275v-67,-82,-144,-140,-232,-174v-88,-34,-212,-38,-374,-10v-162,28,-288,92,-379,194xm891,-1642v56,-35,98,-23,121,44v5,9,8,18,8,28v-67,99,-155,186,-265,262r-46,-58v88,-99,149,-191,182,-276","w":1569},"\u00d4":{"d":"1097,-1084v105,42,202,111,289,205v87,94,120,210,100,349v-20,139,-81,252,-184,342v-103,90,-226,154,-370,192v-144,38,-291,38,-442,2v-151,-36,-266,-94,-342,-174v-76,-80,-117,-184,-124,-310v-7,-126,43,-252,152,-380v109,-128,264,-208,464,-240v200,-32,352,-28,457,14xm291,-794v-91,102,-136,197,-136,286v0,89,30,170,89,245v59,75,154,129,283,161v129,32,255,30,375,-5v120,-35,226,-89,316,-162v90,-73,139,-159,147,-260v8,-101,-22,-193,-89,-275v-67,-82,-144,-140,-232,-174v-88,-34,-212,-38,-374,-10v-162,28,-288,92,-379,194xm645,-1312v-35,9,-63,3,-86,-17r198,-207v35,-28,68,-34,102,-6r158,205v-9,36,-49,42,-89,31r-118,-170","w":1569},"\u00d2":{"d":"1097,-1084v105,42,202,111,289,205v87,94,120,210,100,349v-20,139,-81,252,-184,342v-103,90,-226,154,-370,192v-144,38,-291,38,-442,2v-151,-36,-266,-94,-342,-174v-76,-80,-117,-184,-124,-310v-7,-126,43,-252,152,-380v109,-128,264,-208,464,-240v200,-32,352,-28,457,14xm291,-794v-91,102,-136,197,-136,286v0,89,30,170,89,245v59,75,154,129,283,161v129,32,255,30,375,-5v120,-35,226,-89,316,-162v90,-73,139,-159,147,-260v8,-101,-22,-193,-89,-275v-67,-82,-144,-140,-232,-174v-88,-34,-212,-38,-374,-10v-162,28,-288,92,-379,194xm524,-1566v7,-45,38,-91,74,-91v16,0,34,7,55,19v78,43,139,135,182,276r-46,58v-65,-118,-154,-205,-265,-262","w":1569},"\u00da":{"d":"186,-1081v-19,529,-14,822,14,881v28,59,72,102,132,130v60,28,158,34,292,19v134,-15,248,-39,338,-72v157,-57,228,-117,260,-271v13,-61,14,-307,8,-735v43,-32,87,-28,130,13v16,389,19,628,5,718v-30,198,-157,346,-349,400v-178,50,-338,76,-535,78v-76,0,-154,-13,-235,-38v-81,-25,-140,-75,-178,-151v-38,-76,-48,-402,-30,-978v41,-49,91,-47,148,6xm802,-1622v56,-35,98,-23,121,44v5,9,8,18,8,28v-67,99,-155,186,-265,262r-46,-58v88,-99,149,-191,182,-276","w":1421},"\u00db":{"d":"186,-1081v-19,529,-14,822,14,881v28,59,72,102,132,130v60,28,158,34,292,19v134,-15,248,-39,338,-72v157,-57,228,-117,260,-271v13,-61,14,-307,8,-735v43,-32,87,-28,130,13v16,389,19,628,5,718v-30,198,-157,346,-349,400v-178,50,-338,76,-535,78v-76,0,-154,-13,-235,-38v-81,-25,-140,-75,-178,-151v-38,-76,-48,-402,-30,-978v41,-49,91,-47,148,6xm563,-1320v-35,9,-63,3,-86,-17r198,-207v35,-28,68,-34,102,-6r158,205v-9,36,-49,42,-89,31r-118,-170","w":1421},"\u00d9":{"d":"186,-1081v-19,529,-14,822,14,881v28,59,72,102,132,130v60,28,158,34,292,19v134,-15,248,-39,338,-72v157,-57,228,-117,260,-271v13,-61,14,-307,8,-735v43,-32,87,-28,130,13v16,389,19,628,5,718v-30,198,-157,346,-349,400v-178,50,-338,76,-535,78v-76,0,-154,-13,-235,-38v-81,-25,-140,-75,-178,-151v-38,-76,-48,-402,-30,-978v41,-49,91,-47,148,6xm447,-1557v7,-45,38,-91,74,-91v16,0,34,7,55,19v78,43,139,135,182,276r-46,58v-65,-118,-154,-205,-265,-262","w":1421},"\u02c6":{"d":"363,-916v-35,9,-63,3,-86,-17r198,-207v35,-28,68,-34,102,-6r158,205v-9,36,-49,42,-89,31r-118,-170","w":1049},"\u02dc":{"d":"334,-1109v28,-4,44,8,78,26r201,108r99,-122v17,-7,45,-1,84,19r-127,183v1,3,-2,4,-9,4v-15,0,-42,-6,-82,-19r-188,-108r-97,116r-82,-32","w":999},"\u00b8":{"d":"555,183v-3,58,-89,110,-168,110v-40,0,-106,0,-128,-7v-32,-10,-60,-23,-73,-49v3,-21,22,-34,41,-42v5,3,9,10,16,8v23,20,46,39,81,39v56,0,116,-5,137,-43v29,-52,-29,-74,-65,-83v-48,-13,-101,-22,-110,-76v-4,-26,5,-53,30,-79v8,1,8,-5,12,-8v9,1,17,4,24,9v15,3,25,14,31,32v-33,24,-22,47,4,57v68,27,173,39,168,132","w":682},"\u00a6":{"w":532},"\u00d0":{"w":1479},"\u00f0":{},"\u00dd":{"w":1366},"\u00fd":{"w":1024},"\u00de":{"w":1366},"\u00fe":{},"\u00d7":{"w":1196},"\u00b9":{"w":682},"\u00b2":{"w":682},"\u00b3":{"w":682},"\u00bd":{"w":1708},"\u00bc":{"w":1708},"\u00be":{"w":1708}}});
